digraph Tree {
node [shape=box] ;
0 [label="X[2] <= 0.4107\ngini = 0.0624\nsamples = 316200\nvalue = [306000, 10200]"] ;
1 [label="X[2] <= 0.3393\ngini = 0.0199\nsamples = 306301\nvalue = [303215, 3086]"] ;
0 -> 1 [labeldistance=2.5, labelangle=45, headlabel="True"] ;
5 [label="X[2] <= 0.2679\ngini = 0.0103\nsamples = 297292\nvalue = [295756, 1536]"] ;
1 -> 5 ;
19 [label="gini = 0.0046\nsamples = 277061\nvalue = [276421, 640]"] ;
5 -> 19 ;
20 [label="X[1] <= 0.5\ngini = 0.0847\nsamples = 20231\nvalue = [19335, 896]"] ;
5 -> 20 ;
29 [label="gini = 0.1711\nsamples = 6455\nvalue = [5845, 610]"] ;
20 -> 29 ;
30 [label="gini = 0.0407\nsamples = 13776\nvalue = [13490, 286]"] ;
20 -> 30 ;
6 [label="X[1] <= 0.5\ngini = 0.2849\nsamples = 9009\nvalue = [7459, 1550]"] ;
1 -> 6 ;
9 [label="X[3] <= 0.5\ngini = 0.4406\nsamples = 3385\nvalue = [2276, 1109]"] ;
6 -> 9 ;
13 [label="X[0] <= 0.1179\ngini = 0.4762\nsamples = 2806\nvalue = [1709, 1097]"] ;
9 -> 13 ;
17 [label="X[2] <= 0.375\ngini = 0.5\nsamples = 1575\nvalue = [792, 783]"] ;
13 -> 17 ;
23 [label="gini = 0.4703\nsamples = 841\nvalue = [523, 318]"] ;
17 -> 23 ;
24 [label="gini = 0.4643\nsamples = 734\nvalue = [269, 465]"] ;
17 -> 24 ;
18 [label="gini = 0.38\nsamples = 1231\nvalue = [917, 314]"] ;
13 -> 18 ;
14 [label="gini = 0.0406\nsamples = 579\nvalue = [567, 12]"] ;
9 -> 14 ;
10 [label="gini = 0.1445\nsamples = 5624\nvalue = [5183, 441]"] ;
6 -> 10 ;
2 [label="X[2] <= 0.4821\ngini = 0.4044\nsamples = 9899\nvalue = [2785, 7114]"] ;
0 -> 2 [labeldistance=2.5, labelangle=-45, headlabel="False"] ;
3 [label="X[1] <= 0.5\ngini = 0.4993\nsamples = 4236\nvalue = [2200, 2036]"] ;
2 -> 3 ;
7 [label="X[3] <= 0.5\ngini = 0.4334\nsamples = 2157\nvalue = [685, 1472]"] ;
3 -> 7 ;
15 [label="gini = 0.3901\nsamples = 1973\nvalue = [524, 1449]"] ;
7 -> 15 ;
16 [label="gini = 0.2188\nsamples = 184\nvalue = [161, 23]"] ;
7 -> 16 ;
8 [label="X[3] <= 0.5\ngini = 0.3954\nsamples = 2079\nvalue = [1515, 564]"] ;
3 -> 8 ;
21 [label="X[0] <= 0.1179\ngini = 0.439\nsamples = 1706\nvalue = [1151, 555]"] ;
8 -> 21 ;
31 [label="gini = 0.4886\nsamples = 928\nvalue = [534, 394]"] ;
21 -> 31 ;
32 [label="gini = 0.3282\nsamples = 778\nvalue = [617, 161]"] ;
21 -> 32 ;
22 [label="gini = 0.0471\nsamples = 373\nvalue = [364, 9]"] ;
8 -> 22 ;
4 [label="X[3] <= 0.5\ngini = 0.1853\nsamples = 5663\nvalue = [585, 5078]"] ;
2 -> 4 ;
11 [label="X[2] <= 0.5179\ngini = 0.1464\nsamples = 5471\nvalue = [435, 5036]"] ;
4 -> 11 ;
25 [label="X[1] <= 0.5\ngini = 0.3262\nsamples = 1223\nvalue = [251, 972]"] ;
11 -> 25 ;
27 [label="gini = 0.1505\nsamples = 744\nvalue = [61, 683]"] ;
25 -> 27 ;
28 [label="gini = 0.4786\nsamples = 479\nvalue = [190, 289]"] ;
25 -> 28 ;
26 [label="gini = 0.0829\nsamples = 4248\nvalue = [184, 4064]"] ;
11 -> 26 ;
12 [label="gini = 0.3418\nsamples = 192\nvalue = [150, 42]"] ;
4 -> 12 ;
}